svm_type c_svc
kernel_type rbf
gamma 0.02631578947368421
nr_class 2
total_sv 4
rho -1.531839370727539E-5
label 1 0
nr_sv 2 2
SV
1.0 0:0.49 1:1.0 2:0.0 3:0.0 4:0.0 5:0.141025641025641 6:0.01 7:0.282051282051282 8:0.02 9:0.423076923076923 10:0.05 11:0.564102564102564 12:0.11 13:0.692307692307692 14:0.18 15:0.794871794871795 16:0.27 17:0.897435897435897 18:0.37 19:0.974358974358974 20:1.0 21:0.0 22:1.01 23:0.141025641025641 24:1.0 25:0.282051282051282 26:0.98 27:0.423076923076923 28:0.94 29:0.564102564102564 30:0.89 31:0.692307692307692 32:0.81 33:0.807692307692308 34:0.72 35:0.897435897435897 36:0.62 -1:0.974358974358974 
1.0 0:0.505494505 1:1.0 2:0.0 3:0.0 4:0.0 5:0.140845070603055 6:0.010989011 7:0.28169014120611 8:0.032967033 9:0.422535211809165 10:0.065934066 11:0.56338028241222 12:0.10989011 13:0.690140844673279 14:0.186813187 15:0.802816901155723 16:0.274725275 17:0.901408450577862 18:0.384615385 19:0.971830985879389 20:1.0 21:0.0140845070603055 22:1.0 23:0.15492957766336 24:0.989010989 25:0.295774648266415 26:0.978021978 27:0.43661971886947 28:0.945054945 29:0.577464789472525 30:0.89010989 31:0.704225351733585 32:0.813186813 33:0.802816901155723 34:0.725274725 35:0.901408450577862 36:0.626373626 -1:0.971830985879389 
-1.0 0:0.5 1:1.0 2:0.0 3:0.0 4:0.0 5:0.135802469135802 6:0.01 7:0.283950617283951 8:0.03 9:0.419753086419753 10:0.06 11:0.555555555555556 12:0.12 13:0.679012345679012 14:0.19 15:0.790123456790123 16:0.27 17:0.888888888888889 18:0.37 19:0.962962962962963 20:1.0 21:0.0123456790123457 22:1.0 23:0.148148148148148 24:0.99 25:0.283950617283951 26:0.97 27:0.419753086419753 28:0.94 29:0.555555555555556 30:0.88 31:0.679012345679012 32:0.81 33:0.790123456790123 34:0.72 35:0.888888888888889 36:0.62 -1:0.962962962962963 
-1.0 0:0.5 1:1.0 2:0.0 3:0.0 4:0.007352941 5:0.137254901333333 6:0.022058824 7:0.284313725333333 8:0.044117647 9:0.421568628 10:0.073529412 11:0.558823529333333 12:0.132352941 13:0.686274509333333 14:0.198529412 15:0.794117646666667 16:0.286764706 17:0.892156862666667 18:0.382352941 19:0.970588234666667 20:1.0 21:-0.00980392133333333 22:0.992647059 23:0.137254901333333 24:0.985294118 25:0.284313725333333 26:0.963235294 27:0.421568628 28:0.926470588 29:0.558823529333333 30:0.875 31:0.686274509333333 32:0.801470588 33:0.794117646666667 34:0.720588235 35:0.892156862666667 36:0.625 -1:0.970588234666667 
