svm_type c_svc
kernel_type rbf
gamma 0.02631578947368421
nr_class 2
total_sv 8
rho 7.50422477722168E-5
label 0 1
nr_sv 4 4
SV
1.0 0:0.514285714 1:1.0 2:0.0 3:0.0 4:0.0 5:0.149425288 6:0.00952381 7:0.298850575 8:0.028571429 9:0.436781609 10:0.047619048 11:0.574712643 12:0.095238095 13:0.712643677 14:0.161904762 15:0.827586207 16:0.257142857 17:0.91954023 18:0.371428571 19:0.977011494 20:1.0 21:0.0 22:1.0 23:0.137931034 24:1.0 25:0.287356322 26:0.980952381 27:0.425287356 28:0.961904762 29:0.563218391 30:0.914285714 31:0.701149425 32:0.847619048 33:0.804597701 34:0.761904762 35:0.908045976 36:0.647619048 -1:0.977011494 
1.0 0:0.550458716 1:1.0 2:0.0 3:0.0 4:0.0 5:0.159090909 6:0.009174312 7:0.306818182 8:0.027522936 9:0.454545454 10:0.064220183 11:0.602272727 12:0.119266055 13:0.727272726 14:0.201834862 15:0.840909091 16:0.302752294 17:0.931818181 18:0.412844037 19:0.988636364 20:1.0 21:-0.011363636 22:1.0 23:0.136363636 24:0.990825688 25:0.284090909 26:0.981651376 27:0.420454545 28:0.95412844 29:0.556818181 30:0.917431193 31:0.681818182 32:0.853211009 33:0.795454545 34:0.779816514 35:0.897727272 36:0.678899083 -1:0.965909091 
1.0 0:0.511111111 1:1.0 2:0.0 3:0.0 4:0.0 5:0.155844155 6:0.011111111 7:0.285714285 8:0.033333333 9:0.428571429 10:0.055555556 11:0.571428571 12:0.111111111 13:0.701298701 14:0.177777778 15:0.805194805 16:0.266666667 17:0.909090909 18:0.377777778 19:0.974025973 20:1.0 21:0.012987013 22:1.0 23:0.155844155 24:0.988888889 25:0.298701299 26:0.977777778 27:0.428571429 28:0.955555556 29:0.558441558 30:0.911111111 31:0.688311688 32:0.844444444 33:0.805194805 34:0.755555556 35:0.896103896 36:0.644444444 -1:0.974025973 
1.0 0:0.515463918 1:1.0 2:0.0 3:0.0 4:-0.010309278 5:0.16 6:0.010309278 7:0.306666667 8:0.020618557 9:0.453333334 10:0.041237113 11:0.600000001 12:0.103092784 13:0.733333333 14:0.175257732 15:0.826666667 16:0.268041237 17:0.92 18:0.381443299 19:0.973333334 20:1.0 21:0.04 22:1.0 23:0.173333334 24:0.989690722 25:0.32 26:0.969072165 27:0.453333334 28:0.93814433 29:0.600000001 30:0.896907216 31:0.72 32:0.835051546 33:0.826666667 34:0.75257732 35:0.92 36:0.649484536 -1:0.973333334 
-1.0 0:0.504854369 1:1.0 2:0.0 3:0.0 4:0.0 5:0.15 6:0.009708738 7:0.2875 8:0.019417476 9:0.4375 10:0.048543689 11:0.587500001 12:0.097087379 13:0.7125 14:0.165048544 15:0.825 16:0.262135922 17:0.9125 18:0.368932039 19:0.975 20:1.0 21:0.0 22:1.0 23:0.15 24:0.990291262 25:0.3 26:0.980582524 27:0.4375 28:0.951456311 29:0.587500001 30:0.902912621 31:0.7125 32:0.834951456 33:0.825 34:0.737864078 35:0.9125 36:0.631067961 -1:0.975 
-1.0 0:0.505154639 1:1.0 2:0.0 3:0.0 4:0.0 5:0.162162162 6:0.020618557 7:0.297297298 8:0.041237113 9:0.432432432 10:0.072164948 11:0.581081081 12:0.12371134 13:0.702702702 14:0.195876289 15:0.810810811 16:0.278350515 17:0.905405405 18:0.381443299 19:0.972972973 20:1.0 21:0.027027027 22:0.989690722 23:0.175675676 24:0.969072165 25:0.310810811 26:0.948453608 27:0.445945946 28:0.927835052 29:0.594594594 30:0.87628866 31:0.716216217 32:0.81443299 33:0.824324324 34:0.731958763 35:0.918918919 36:0.639175258 -1:0.986486487 
-1.0 0:0.516393443 1:1.0 2:0.0 3:0.0 4:0.008196721 5:0.150537634 6:0.032786885 7:0.29032258 8:0.057377049 9:0.430107526 10:0.090163934 11:0.569892474 12:0.139344262 13:0.688172043 14:0.213114754 15:0.795698925 16:0.295081967 17:0.892473118 18:0.385245902 19:0.967741935 20:1.0 21:0.0 22:0.991803279 23:0.139784946 24:0.975409836 25:0.279569892 26:0.950819672 27:0.419354838 28:0.926229508 29:0.559139785 30:0.87704918 31:0.688172043 32:0.81147541 33:0.795698925 34:0.729508197 35:0.892473118 36:0.639344262 -1:0.967741935 
-1.0 0:0.5 1:1.0 2:0.0 3:0.0 4:0.0 5:0.144736843 6:0.021276596 7:0.276315789 8:0.042553191 9:0.421052632 10:0.063829787 11:0.55263158 12:0.117021277 13:0.684210526 14:0.180851064 15:0.789473684 16:0.265957447 17:0.894736842 18:0.372340426 19:0.960526317 20:1.0 21:0.013157895 22:1.0 23:0.157894736 24:0.978723404 25:0.302631579 26:0.957446809 27:0.434210527 28:0.936170213 29:0.565789474 30:0.893617021 31:0.697368421 32:0.819148936 33:0.802631579 34:0.734042553 35:0.907894737 36:0.627659574 -1:0.973684211 
