svm_type c_svc
kernel_type rbf
gamma 0.02631578947368421
nr_class 2
total_sv 8
rho -4.177987575531006E-4
label 0 1
nr_sv 4 4
SV
1.0 0:0.49 1:0.79 2:0.0 3:0.0 4:0.0 5:0.11 6:0.01 7:0.22 8:0.03 9:0.33 10:0.07 11:0.44 12:0.13 13:0.53 14:0.2 15:0.62 16:0.28 17:0.7 18:0.37 19:0.77 20:1.0 21:0.0 22:0.99 23:0.11 24:0.98 25:0.22 26:0.96 27:0.33 28:0.92 29:0.43 30:0.86 31:0.53 32:0.79 33:0.62 34:0.71 35:0.7 36:0.62 -1:0.77 
1.0 0:0.473684211 1:0.821052632 2:0.0 3:0.0 4:0.0 5:0.115789474 6:0.010526316 7:0.221052632 8:0.021052632 9:0.336842105 10:0.052631579 11:0.452631579 12:0.105263158 13:0.547368421 14:0.178947368 15:0.642105263 16:0.252631579 17:0.726315789 18:0.357894737 19:0.8 20:1.0 21:0.0 22:1.0 23:0.115789474 24:0.989473684 25:0.231578947 26:0.968421053 27:0.347368421 28:0.926315789 29:0.452631579 30:0.863157895 31:0.557894737 32:0.789473684 33:0.652631579 34:0.705263158 35:0.726315789 36:0.610526316 -1:0.8 
1.0 0:0.470588235 1:0.803921569 2:0.0 3:0.0 4:0.0 5:0.107843137 6:0.009803922 7:0.215686275 8:0.029411765 9:0.333333333 10:0.058823529 11:0.441176471 12:0.107843137 13:0.539215686 14:0.176470588 15:0.62745098 16:0.254901961 17:0.715686275 18:0.352941176 19:0.784313725 20:1.0 21:0.0 22:1.0 23:0.117647059 24:0.990196078 25:0.225490196 26:0.960784314 27:0.343137255 28:0.931372549 29:0.460784314 30:0.882352941 31:0.558823529 32:0.803921569 33:0.647058824 34:0.715686275 35:0.725490196 36:0.607843137 -1:0.784313725 
1.0 0:0.480769231 1:0.788461538 2:0.0 3:0.0 4:0.0 5:0.115384615 6:0.0 7:0.221153846 8:0.019230769 9:0.336538462 10:0.048076923 11:0.451923077 12:0.096153846 13:0.548076923 14:0.163461538 15:0.644230769 16:0.25 17:0.711538462 18:0.355769231 19:0.769230769 20:1.0 21:0.0 22:1.0 23:0.115384615 24:1.0 25:0.230769231 26:0.980769231 27:0.346153846 28:0.951923077 29:0.461538462 30:0.894230769 31:0.567307692 32:0.817307692 33:0.653846154 34:0.721153846 35:0.721153846 36:0.615384615 -1:0.769230769 
-1.0 0:0.505747126 1:0.770114943 2:0.0 3:0.0 4:0.0 5:0.103448276 6:0.011494253 7:0.218390805 8:0.034482759 9:0.32183908 10:0.068965517 11:0.436781609 12:0.126436782 13:0.528735632 14:0.195402299 15:0.609195402 16:0.287356322 17:0.689655172 18:0.390804598 19:0.747126437 20:1.0 21:-0.011494253 22:1.0 23:0.103448276 24:0.988505747 25:0.218390805 26:0.965517241 27:0.32183908 28:0.931034483 29:0.425287356 30:0.885057471 31:0.528735632 32:0.816091954 33:0.609195402 34:0.724137931 35:0.689655172 36:0.632183908 -1:0.747126437 
-1.0 0:0.510204082 1:0.734693878 2:0.0 3:0.0 4:0.0 5:0.102040816 6:0.010204082 7:0.204081633 8:0.040816327 9:0.316326531 10:0.071428571 11:0.418367347 12:0.132653061 13:0.510204082 14:0.204081633 15:0.591836735 16:0.285714286 17:0.663265306 18:0.387755102 19:0.714285714 20:1.0 21:-0.010204082 22:0.989795918 23:0.102040816 24:0.979591837 25:0.204081633 26:0.948979592 27:0.306122449 28:0.918367347 29:0.397959184 30:0.867346939 31:0.489795918 32:0.795918367 33:0.571428571 34:0.714285714 35:0.642857143 36:0.62244898 -1:0.704081633 
-1.0 0:0.510869565 1:0.77173913 2:0.0 3:0.0 4:0.0 5:0.108695652 6:0.010869565 7:0.217391304 8:0.032608696 9:0.326086957 10:0.076086957 11:0.434782609 12:0.130434783 13:0.532608696 14:0.206521739 15:0.608695652 16:0.293478261 17:0.684782609 18:0.391304348 19:0.75 20:1.0 21:-0.010869565 22:1.0 23:0.097826087 24:0.989130435 25:0.206521739 26:0.97826087 27:0.326086957 28:0.934782609 29:0.423913043 30:0.880434783 31:0.52173913 32:0.815217391 33:0.608695652 34:0.72826087 35:0.684782609 36:0.641304348 -1:0.739130435 
-1.0 0:0.517482517 1:0.776223776 2:0.0 3:0.0 4:0.006993007 5:0.111888112 6:0.020979021 7:0.223776224 8:0.041958042 9:0.328671329 10:0.076923077 11:0.433566434 12:0.132867133 13:0.531468531 14:0.20979021 15:0.615384615 16:0.293706294 17:0.692307692 18:0.391608392 19:0.755244755 20:1.0 21:0.0 22:0.993006993 23:0.111888112 24:0.979020979 25:0.216783217 26:0.958041958 27:0.321678322 28:0.923076923 29:0.426573427 30:0.874125874 31:0.517482517 32:0.804195804 33:0.601398601 34:0.727272727 35:0.685314685 36:0.636363636 -1:0.748251748 
