svm_type c_svc
kernel_type rbf
gamma 0.05555555555555555
nr_class 6
total_sv 30
rho 3.814697265625E-6 1.0073184967041016E-5 1.868605613708496E-5 -3.3468008041381836E-5 -1.5407800674438477E-5 -1.3619661331176758E-5 -3.933906555175781E-6 -5.3435564041137695E-5 -1.0281801223754883E-4 3.7610530853271484E-5 -1.963973045349121E-5 -8.043646812438965E-5 -5.8323144912719727E-5 -5.692243576049805E-5 -4.965066909790039E-5
label 1 2 4 5 7 8
nr_sv 5 5 5 5 5 5
SV
1.0 1.0 1.0 1.0 1.0 0:0.0 1:0.036036036 2:0.0 3:0.0 4:-0.09009009 5:0.0 6:-0.045045045 7:0.018018018 8:0.045045045 9:0.027027027 10:0.09009009 11:0.027027027 12:0.009009009 13:-0.027027027 14:-0.045045045 15:-0.027027027 16:0.054054054 17:-0.009009009 
1.0 1.0 1.0 1.0 1.0 0:0.0 1:0.032786885 2:0.0 3:0.0 4:-0.090163934 5:0.0 6:-0.049180328 7:0.024590164 8:0.049180328 9:0.024590164 10:0.098360656 11:0.024590164 12:0.008196721 13:-0.032786886 14:-0.049180328 15:-0.024590164 16:0.057377049 17:-0.016393443 
1.0 1.0 1.0 1.0 1.0 0:0.0 1:0.041237113 2:0.0 3:0.0 4:-0.092783505 5:0.0 6:-0.051546392 7:0.030927835 8:0.051546392 9:0.030927835 10:0.092783505 11:0.030927835 12:0.010309278 13:-0.030927835 14:-0.041237114 15:-0.020618557 16:0.06185567 17:-0.010309278 
1.0 1.0 1.0 1.0 1.0 0:0.0 1:0.032608696 2:0.0 3:0.0 4:-0.108695652 5:0.0 6:-0.054347826 7:0.021739131 8:0.054347826 9:0.032608696 10:0.097826087 11:0.032608696 12:0.010869565 13:-0.032608695 14:-0.054347826 15:-0.02173913 16:0.054347826 17:-0.02173913 
1.0 1.0 1.0 1.0 1.0 0:0.0 1:0.034782608 2:0.0 3:0.0 4:-0.095652174 5:0.008695652 6:-0.052173913 7:0.026086956 8:0.052173913 9:0.034782608 10:0.086956522 11:0.026086956 12:0.008695652 13:-0.034782609 14:-0.043478261 15:-0.026086957 16:0.060869565 17:-0.017391305 
-1.0 1.0 1.0 1.0 1.0 0:0.0 1:0.038095239 2:0.0 3:0.0 4:-0.085714286 5:0.00952381 6:-0.047619048 7:0.028571429 8:0.057142857 9:0.028571429 10:0.104761904 11:0.01904762 12:0.009523809 13:-0.038095238 14:-0.047619048 15:-0.019047619 16:0.057142857 17:-0.019047619 
-1.0 1.0 1.0 1.0 1.0 0:-0.01 1:0.04 2:0.0 3:0.0 4:-0.08 5:0.01 6:-0.05 7:0.02 8:0.05 9:0.03 10:0.09 11:0.02 12:0.0 13:-0.03 14:-0.05 15:-0.02 16:0.05 17:-0.02 
-1.0 1.0 1.0 1.0 1.0 0:0.0 1:0.04 2:0.0 3:0.0 4:-0.09 5:0.01 6:-0.05 7:0.03 8:0.06 9:0.03 10:0.1 11:0.03 12:0.0 13:-0.03 14:-0.05 15:-0.02 16:0.06 17:-0.02 
-1.0 1.0 1.0 1.0 1.0 0:0.0 1:0.039215686 2:0.0 3:0.0 4:-0.098039215 5:0.009803921 6:-0.049019607 7:0.029411765 8:0.049019608 9:0.029411765 10:0.098039216 11:0.029411765 12:0.0 13:-0.029411765 14:-0.049019607 15:-0.019607843 16:0.05882353 17:-0.019607843 
-1.0 1.0 1.0 1.0 1.0 0:0.0 1:0.041237114 2:0.0 3:0.0 4:-0.092783505 5:0.010309279 6:-0.041237113 7:0.030927835 8:0.061855671 9:0.030927835 10:0.092783506 11:0.020618557 12:0.0 13:-0.030927835 14:-0.041237113 15:-0.020618556 16:0.061855671 17:-0.020618556 
-1.0 -1.0 1.0 1.0 1.0 0:0.0 1:0.038834951 2:0.0 3:0.0 4:-0.08737864 5:-0.009708738 6:-0.048543689 7:0.019417476 8:0.058252428 9:0.029126214 10:0.097087379 11:0.019417476 12:0.009708738 13:-0.029126214 14:-0.038834951 15:-0.029126214 16:0.067961166 17:-0.009708738 
-1.0 -1.0 1.0 1.0 1.0 0:0.0 1:0.029411765 2:0.0 3:0.0 4:-0.088235294 5:0.0 6:-0.049019608 7:0.019607844 8:0.049019607 9:0.029411765 10:0.098039215 11:0.009803922 12:0.0 13:-0.029411764 14:-0.049019608 15:-0.019607843 16:0.058823529 17:-0.019607843 
-1.0 -1.0 1.0 1.0 1.0 0:0.0 1:0.022988506 2:0.0 3:0.0 4:-0.091954023 5:0.0 6:-0.045977012 7:0.011494253 8:0.045977011 9:0.022988506 10:0.103448276 11:0.011494253 12:0.0 13:-0.022988506 14:-0.045977012 15:-0.022988506 16:0.057471264 17:-0.011494253 
-1.0 -1.0 1.0 1.0 1.0 0:-0.009174312 1:0.036697248 2:0.0 3:0.0 4:-0.09174312 5:0.0 6:-0.055045872 7:0.018348624 8:0.055045871 9:0.027522936 10:0.100917431 11:0.018348624 12:0.0 13:-0.036697248 14:-0.04587156 15:-0.027522936 16:0.055045871 17:-0.018348624 
-1.0 -1.0 1.0 1.0 1.0 0:0.0 1:0.033333333 2:0.0 3:0.0 4:-0.088888889 5:0.0 6:-0.044444445 7:0.022222222 8:0.055555555 9:0.022222222 10:0.1 11:0.022222222 12:0.0 13:-0.033333333 14:-0.044444445 15:-0.033333333 16:0.066666666 17:-0.022222222 
-1.0 -1.0 -1.0 1.0 1.0 0:0.0 1:0.021505377 2:0.0 3:0.0 4:-0.086021505 5:0.0 6:-0.053763441 7:0.021505377 8:0.043010753 9:0.021505377 10:0.086021506 11:0.021505377 12:0.010752688 13:-0.032258064 14:-0.043010752 15:-0.021505376 16:0.053763441 17:-0.021505376 
-1.0 -1.0 -1.0 1.0 1.0 0:0.0 1:0.030612245 2:0.0 3:0.0 4:-0.081632653 5:0.0 6:-0.051020408 7:0.020408163 8:0.040816327 9:0.030612245 10:0.081632653 11:0.020408163 12:0.0 13:-0.040816327 14:-0.040816326 15:-0.030612245 16:0.051020408 17:-0.020408163 
-1.0 -1.0 -1.0 1.0 1.0 0:-0.010989011 1:0.021978022 2:0.0 3:0.0 4:-0.087912088 5:-0.010989011 6:-0.054945055 7:0.010989011 8:0.043956044 9:0.021978022 10:0.087912088 11:0.010989011 12:0.0 13:-0.032967033 14:-0.054945055 15:-0.032967033 16:0.043956044 17:-0.021978022 
-1.0 -1.0 -1.0 1.0 1.0 0:-0.010752688 1:0.021505377 2:0.0 3:0.0 4:-0.096774194 5:-0.010752688 6:-0.053763441 7:0.010752688 8:0.043010753 9:0.021505377 10:0.086021505 11:0.021505377 12:0.0 13:-0.043010753 14:-0.053763441 15:-0.032258064 16:0.053763441 17:-0.021505376 
-1.0 -1.0 -1.0 1.0 1.0 0:0.0 1:0.019047619 2:0.0 3:0.0 4:-0.085714286 5:0.0 6:-0.047619047 7:0.019047619 8:0.047619048 9:0.019047619 10:0.085714286 11:0.009523809 12:0.0 13:-0.038095238 14:-0.047619047 15:-0.028571429 16:0.047619048 17:-0.028571429 
-1.0 -1.0 -1.0 -1.0 1.0 0:0.0 1:0.03 2:0.0 3:0.0 4:-0.09 5:-0.01 6:-0.05 7:0.02 8:0.05 9:0.03 10:0.1 11:0.03 12:0.01 13:-0.05 14:-0.05 15:-0.04 16:0.06 17:-0.02 
-1.0 -1.0 -1.0 -1.0 1.0 0:0.0 1:0.031578948 2:0.0 3:0.0 4:-0.094736842 5:-0.010526316 6:-0.052631579 7:0.021052632 8:0.052631579 9:0.031578948 10:0.105263158 11:0.021052632 12:0.010526316 13:-0.042105263 14:-0.042105263 15:-0.031578947 16:0.063157895 17:-0.021052631 
-1.0 -1.0 -1.0 -1.0 1.0 0:-0.009803921 1:0.029411765 2:0.0 3:0.0 4:-0.098039216 5:0.0 6:-0.058823529 7:0.019607844 8:0.049019608 9:0.029411765 10:0.098039216 11:0.019607844 12:0.0 13:-0.049019607 14:-0.058823529 15:-0.039215686 16:0.058823529 17:-0.029411764 
-1.0 -1.0 -1.0 -1.0 1.0 0:0.0 1:0.034482759 2:0.0 3:0.0 4:-0.091954023 5:0.0 6:-0.057471264 7:0.022988506 8:0.045977011 9:0.022988506 10:0.103448276 11:0.022988506 12:0.0 13:-0.045977011 14:-0.045977012 15:-0.034482759 16:0.057471264 17:-0.034482759 
-1.0 -1.0 -1.0 -1.0 1.0 0:-0.006993007 1:0.034965035 2:0.0 3:0.0 4:-0.097902098 5:-0.006993007 6:-0.062937063 7:0.013986014 8:0.048951049 9:0.034965035 10:0.104895105 11:0.020979021 12:0.006993007 13:-0.055944056 14:-0.055944056 15:-0.041958042 16:0.062937063 17:-0.027972028 
-1.0 -1.0 -1.0 -1.0 -1.0 0:0.0 1:0.021052631 2:0.0 3:0.0 4:-0.094736842 5:-0.010526316 6:-0.052631579 7:0.010526316 8:0.052631579 9:0.021052631 10:0.094736842 11:0.021052631 12:0.010526316 13:-0.052631579 14:-0.052631579 15:-0.042105263 16:0.063157894 17:-0.031578948 
-1.0 -1.0 -1.0 -1.0 -1.0 0:0.0 1:0.027272727 2:0.0 3:0.0 4:-0.090909091 5:-0.009090909 6:-0.045454546 7:0.018181818 8:0.054545454 9:0.027272727 10:0.1 11:0.018181818 12:0.009090909 13:-0.045454545 14:-0.045454546 15:-0.036363636 16:0.063636363 17:-0.027272727 
-1.0 -1.0 -1.0 -1.0 -1.0 0:0.0 1:0.03125 2:0.0 3:0.0 4:-0.09375 5:-0.0078125 6:-0.0546875 7:0.015625 8:0.0546875 9:0.0234375 10:0.1015625 11:0.015625 12:0.0078125 13:-0.046875 14:-0.046875 15:-0.0390625 16:0.0625 17:-0.03125 
-1.0 -1.0 -1.0 -1.0 -1.0 0:0.0 1:0.021276596 2:0.0 3:0.0 4:-0.095744681 5:-0.010638298 6:-0.053191489 7:0.010638298 8:0.053191489 9:0.021276596 10:0.095744681 11:0.010638298 12:0.010638298 13:-0.042553191 14:-0.053191489 15:-0.031914894 16:0.063829787 17:-0.031914894 
-1.0 -1.0 -1.0 -1.0 -1.0 0:0.0 1:0.021978022 2:0.0 3:0.0 4:-0.098901099 5:-0.010989011 6:-0.054945055 7:0.010989011 8:0.043956044 9:0.021978022 10:0.098901099 11:0.021978022 12:0.010989011 13:-0.054945055 14:-0.054945055 15:-0.043956044 16:0.065934066 17:-0.032967033 
