svm_type c_svc
kernel_type rbf
gamma 0.02631578947368421
nr_class 2
total_sv 8
rho 5.352497100830078E-5
label 1 0
nr_sv 4 4
SV
1.0 0:0.504504505 1:0.756756757 2:0.0 3:0.0 4:0.0 5:0.117117117 6:0.027027027 7:0.225225225 8:0.054054054 9:0.324324324 10:0.072072072 11:0.432432432 12:0.126126126 13:0.531531532 14:0.198198198 15:0.612612613 16:0.279279279 17:0.693693694 18:0.378378378 19:0.738738739 20:1.0 21:-0.018018018 22:1.0 23:0.099099099 24:0.981981982 25:0.207207207 26:0.963963964 27:0.315315315 28:0.936936937 29:0.423423423 30:0.891891892 31:0.522522523 32:0.81981982 33:0.612612613 34:0.738738739 35:0.684684685 36:0.63963964 -1:0.738738739 
1.0 0:0.504761905 1:0.780952381 2:0.0 3:0.0 4:0.00952381 5:0.114285714 6:0.028571429 7:0.228571429 8:0.057142857 9:0.333333333 10:0.085714286 11:0.438095238 12:0.142857143 13:0.533333333 14:0.20952381 15:0.619047619 16:0.285714286 17:0.695238095 18:0.380952381 19:0.761904762 20:1.0 21:-0.00952381 22:1.0 23:0.104761905 24:0.980952381 25:0.219047619 26:0.952380952 27:0.323809524 28:0.923809524 29:0.438095238 30:0.876190476 31:0.533333333 32:0.80952381 33:0.60952381 34:0.723809524 35:0.695238095 36:0.628571429 -1:0.761904762 
1.0 0:0.5 1:0.765822785 2:0.0 3:0.0 4:0.0 5:0.113924051 6:0.018987342 7:0.221518987 8:0.037974684 9:0.329113924 10:0.069620253 11:0.436708861 12:0.120253165 13:0.53164557 14:0.196202532 15:0.613924051 16:0.278481013 17:0.683544304 18:0.379746835 19:0.740506329 20:1.0 21:0.0 22:0.993670886 23:0.113924051 24:0.981012658 25:0.221518987 26:0.955696203 27:0.329113924 28:0.930379747 29:0.436708861 30:0.873417722 31:0.53164557 32:0.810126582 33:0.613924051 34:0.721518987 35:0.683544304 36:0.626582278 -1:0.740506329 
1.0 0:0.504854369 1:0.776699029 2:0.0 3:0.0 4:0.0 5:0.116504854 6:0.009708738 7:0.223300971 8:0.029126214 9:0.330097087 10:0.058252427 11:0.446601942 12:0.116504854 13:0.54368932 14:0.184466019 15:0.621359223 16:0.27184466 17:0.699029126 18:0.378640777 19:0.747572816 20:1.0 21:0.009708738 22:1.0 23:0.116504854 24:0.980582524 25:0.233009709 26:0.961165049 27:0.339805825 28:0.932038835 29:0.446601942 30:0.873786408 31:0.54368932 32:0.805825243 33:0.621359223 34:0.72815534 35:0.699029126 36:0.631067961 -1:0.757281553 
-1.0 0:0.51 1:0.8 2:0.0 3:0.0 4:0.0 5:0.12 6:0.02 7:0.23 8:0.05 9:0.34 10:0.08 11:0.45 12:0.13 13:0.55 14:0.2 15:0.63 16:0.28 17:0.72 18:0.38 19:0.78 20:1.0 21:0.01 22:0.99 23:0.12 24:0.97 25:0.23 26:0.94 27:0.34 28:0.91 29:0.45 30:0.86 31:0.55 32:0.8 33:0.63 34:0.72 35:0.72 36:0.64 -1:0.78 
-1.0 0:0.51 1:0.83 2:0.0 3:0.0 4:0.01 5:0.12 6:0.03 7:0.24 8:0.05 9:0.35 10:0.07 11:0.46 12:0.12 13:0.57 14:0.19 15:0.66 16:0.27 17:0.75 18:0.38 19:0.81 20:1.0 21:0.0 22:1.0 23:0.12 24:0.98 25:0.24 26:0.96 27:0.35 28:0.94 29:0.46 30:0.89 31:0.57 32:0.83 33:0.66 34:0.74 35:0.74 36:0.64 -1:0.81 
-1.0 0:0.519607843 1:0.794117647 2:0.0 3:0.0 4:0.0 5:0.12745098 6:0.019607843 7:0.235294118 8:0.039215686 9:0.352941176 10:0.058823529 11:0.470588235 12:0.107843137 13:0.568627451 14:0.176470588 15:0.656862745 16:0.274509804 17:0.735294118 18:0.382352941 19:0.774509804 20:1.0 21:-0.019607843 22:1.0 23:0.098039216 24:0.980392157 25:0.215686275 26:0.970588235 27:0.333333333 28:0.950980392 29:0.450980392 30:0.911764706 31:0.558823529 32:0.852941176 33:0.647058824 34:0.754901961 35:0.715686275 36:0.656862745 -1:0.774509804 
-1.0 0:0.515463918 1:0.835051546 2:0.0 3:0.0 4:0.0 5:0.12371134 6:0.030927835 7:0.237113402 8:0.051546392 9:0.350515464 10:0.072164948 11:0.463917526 12:0.12371134 13:0.567010309 14:0.195876289 15:0.659793814 16:0.278350515 17:0.75257732 18:0.381443299 19:0.804123711 20:1.0 21:0.0 22:0.989690722 23:0.12371134 24:0.969072165 25:0.237113402 26:0.93814433 27:0.360824742 28:0.907216495 29:0.463917526 30:0.865979381 31:0.567010309 32:0.804123711 33:0.659793814 34:0.731958763 35:0.742268041 36:0.639175258 -1:0.81443299 
