svm_type c_svc
kernel_type rbf
gamma 0.0625
nr_class 4
total_sv 36
rho 6.285309791564941E-5 -1.9311904907226562E-5 1.2859702110290527E-4 -1.5044212341308594E-4 -3.2722949981689453E-4 2.467036247253418E-4
label 1 2 3 6
nr_sv 9 9 9 9
SV
1.0 1.0 1.0 0:-0.126126126 1:0.009009009 2:-0.063063063 3:0.0 4:0.0 5:0.0 6:0.072072072 7:0.009009009 8:0.162162162 9:0.018018018 10:-0.072072072 11:-0.054054054 12:0.0 13:-0.054054054 14:0.081081081 15:-0.036036036 
1.0 1.0 1.0 0:-0.14556962 1:0.018987342 2:-0.075949367 3:0.006329114 4:0.0 5:0.0 6:0.075949368 7:0.006329114 8:0.158227849 9:0.0 10:-0.082278481 11:-0.037974683 12:0.0 13:-0.050632911 14:0.082278481 15:-0.044303797 
1.0 1.0 1.0 0:-0.14 1:0.01 2:-0.07 3:0.0 4:0.0 5:0.0 6:0.09 7:0.01 8:0.17 9:0.01 10:-0.08 11:-0.06 12:0.0 13:-0.07 14:0.09 15:-0.05 
1.0 1.0 1.0 0:-0.144329897 1:0.010309278 2:-0.072164948 3:0.0 4:0.0 5:0.0 6:0.082474227 7:0.0 8:0.175257732 9:-0.010309279 10:-0.082474227 11:-0.051546392 12:0.0 13:-0.06185567 14:0.092783505 15:-0.051546392 
1.0 1.0 1.0 0:-0.137931034 1:0.011494253 2:-0.068965517 3:0.0 4:0.0 5:0.0 6:0.08045977 7:0.0 8:0.16091954 9:-0.011494252 10:-0.08045977 11:-0.045977011 12:0.0 13:-0.068965517 14:0.08045977 15:-0.057471264 
1.0 1.0 1.0 0:-0.127659574 1:0.031914893 2:-0.074468085 3:0.010638297 4:0.0 5:0.0 6:0.074468086 7:0.010638297 8:0.159574469 9:0.021276595 10:-0.074468085 11:-0.042553192 12:0.0 13:-0.05319149 14:0.085106383 15:-0.042553192 
1.0 1.0 1.0 0:-0.12371134 1:0.030927835 2:-0.072164948 3:0.010309278 4:0.0 5:0.0 6:0.092783506 7:0.0 8:0.175257732 9:0.0 10:-0.082474226 11:-0.051546392 12:0.0 13:-0.072164948 14:0.092783506 15:-0.06185567 
1.0 1.0 1.0 0:-0.141304347 1:0.0 2:-0.065217391 3:0.0 4:0.0 5:0.0 6:0.076086957 7:0.0 8:0.163043479 9:0.0 10:-0.076086956 11:-0.054347826 12:0.0 13:-0.054347826 14:0.086956522 15:-0.043478261 
1.0 1.0 1.0 0:-0.134020619 1:0.010309278 2:-0.072164949 3:0.0 4:0.0 5:0.0 6:0.082474227 7:0.010309278 8:0.164948453 9:0.0 10:-0.082474227 11:-0.051546392 12:0.0 13:-0.06185567 14:0.082474227 15:-0.051546392 
-1.0 1.0 1.0 0:-0.142857143 1:0.0 2:-0.076190477 3:0.0 4:0.0 5:0.0 6:0.076190476 7:0.019047619 8:0.161904761 9:0.028571428 10:-0.076190477 11:-0.057142857 12:0.009523809 13:-0.057142857 14:0.085714285 15:-0.028571429 
-1.0 1.0 1.0 0:-0.137254902 1:0.0 2:-0.078431373 3:-0.009803921 4:0.0 5:0.0 6:0.078431372 7:0.009803922 8:0.166666667 9:0.019607843 10:-0.078431373 11:-0.058823529 12:0.009803922 13:-0.058823529 14:0.088235294 15:-0.029411764 
-1.0 1.0 1.0 0:-0.155339806 1:-0.009708737 2:-0.077669903 3:-0.009708737 4:0.0 5:0.0 6:0.077669903 7:0.0 8:0.165048543 9:0.0 10:-0.087378641 11:-0.067961165 12:0.0 13:-0.067961165 14:0.077669903 15:-0.048543689 
-1.0 1.0 1.0 0:-0.14 1:-0.01 2:-0.07 3:-0.01 4:0.0 5:0.0 6:0.08 7:0.02 8:0.16 9:0.03 10:-0.07 11:-0.06 12:0.01 13:-0.06 14:0.09 15:-0.03 
-1.0 1.0 1.0 0:-0.136842106 1:0.0 2:-0.073684211 3:0.0 4:0.0 5:0.0 6:0.07368421 7:0.021052631 8:0.157894736 9:0.021052631 10:-0.073684211 11:-0.052631579 12:0.010526315 13:-0.052631579 14:0.084210526 15:-0.031578948 
-1.0 1.0 1.0 0:-0.13986014 1:0.006993007 2:-0.076923077 3:0.0 4:0.0 5:0.0 6:0.083916084 7:0.013986014 8:0.160839161 9:0.020979021 10:-0.076923077 11:-0.048951049 12:0.006993007 13:-0.055944056 14:0.090909091 15:-0.034965035 
-1.0 1.0 1.0 0:-0.147368421 1:0.010526316 2:-0.07368421 3:0.0 4:0.0 5:0.0 6:0.073684211 7:0.010526316 8:0.157894737 9:0.021052631 10:-0.07368421 11:-0.052631579 12:0.0 13:-0.052631579 14:0.084210526 15:-0.042105263 
-1.0 1.0 1.0 0:-0.145454545 1:0.009090909 2:-0.072727272 3:0.0 4:0.0 5:0.0 6:0.081818182 7:0.018181818 8:0.154545455 9:0.018181818 10:-0.081818182 11:-0.045454546 12:0.009090909 13:-0.045454546 14:0.090909091 15:-0.027272727 
-1.0 1.0 1.0 0:-0.133333333 1:0.0 2:-0.066666666 3:0.0 4:0.0 5:0.0 6:0.077777778 7:0.011111111 8:0.155555556 9:0.022222222 10:-0.077777778 11:-0.044444445 12:0.011111111 13:-0.055555556 14:0.088888889 15:-0.033333334 
-1.0 -1.0 1.0 0:-0.13 1:0.02 2:-0.07 3:0.01 4:0.0 5:0.0 6:0.07 7:0.0 8:0.14 9:0.0 10:-0.08 11:-0.04 12:-0.01 13:-0.06 14:0.07 15:-0.05 
-1.0 -1.0 1.0 0:-0.127450981 1:0.019607843 2:-0.068627451 3:0.009803921 4:0.0 5:0.0 6:0.078431372 7:0.0 8:0.156862745 9:0.0 10:-0.078431373 11:-0.039215687 12:0.0 13:-0.05882353 14:0.088235294 15:-0.049019608 
-1.0 -1.0 1.0 0:-0.137614679 1:0.04587156 2:-0.073394495 3:0.018348624 4:0.0 5:0.0 6:0.073394495 7:-0.009174312 8:0.155963303 9:-0.018348624 10:-0.082568807 11:-0.027522936 12:-0.009174312 13:-0.055045872 14:0.073394495 15:-0.064220183 
-1.0 -1.0 1.0 0:-0.144444444 1:0.044444444 2:-0.077777777 3:0.011111111 4:0.0 5:0.0 6:0.077777778 7:0.011111111 8:0.155555556 9:0.011111111 10:-0.088888889 11:-0.033333333 12:-0.011111111 13:-0.055555556 14:0.077777778 15:-0.044444445 
-1.0 -1.0 1.0 0:-0.134020618 1:0.030927835 2:-0.072164948 3:0.010309278 4:0.0 5:0.0 6:0.082474227 7:0.0 8:0.154639175 9:-0.010309278 10:-0.082474227 11:-0.030927835 12:0.0 13:-0.051546392 14:0.082474227 15:-0.051546392 
-1.0 -1.0 1.0 0:-0.131147541 1:0.024590164 2:-0.073770491 3:0.008196721 4:0.0 5:0.0 6:0.073770492 7:0.0 8:0.147540984 9:0.0 10:-0.081967213 11:-0.032786885 12:-0.008196721 13:-0.049180328 14:0.073770492 15:-0.049180328 
-1.0 -1.0 1.0 0:-0.136363636 1:0.036363637 2:-0.072727273 3:0.00909091 4:0.0 5:0.0 6:0.072727273 7:0.0 8:0.145454546 9:0.0 10:-0.081818182 11:-0.018181818 12:-0.009090909 13:-0.045454545 14:0.072727273 15:-0.036363636 
-1.0 -1.0 1.0 0:-0.129032258 1:0.021505377 2:-0.064516129 3:0.010752689 4:0.0 5:0.0 6:0.075268817 7:0.0 8:0.161290322 9:0.0 10:-0.075268817 11:-0.032258064 12:0.0 13:-0.05376344 14:0.086021505 15:-0.043010752 
-1.0 -1.0 1.0 0:-0.121212121 1:0.040404041 2:-0.060606061 3:0.020202021 4:0.0 5:0.0 6:0.070707071 7:0.0 8:0.151515151 9:-0.01010101 10:-0.080808081 11:-0.03030303 12:-0.01010101 13:-0.06060606 14:0.080808081 15:-0.05050505 
-1.0 -1.0 -1.0 0:-0.116504854 1:-0.009708738 2:-0.058252427 3:-0.009708738 4:0.0 5:0.0 6:0.067961165 7:0.009708738 8:0.145631068 9:0.009708738 10:-0.058252427 11:-0.04854369 12:0.009708738 13:-0.04854369 14:0.077669903 15:-0.038834952 
-1.0 -1.0 -1.0 0:-0.113402062 1:0.0 2:-0.06185567 3:0.0 4:0.0 5:0.0 6:0.072164949 7:0.010309279 8:0.144329897 9:0.020618557 10:-0.06185567 11:-0.041237113 12:0.0 13:-0.051546392 14:0.072164949 15:-0.030927835 
-1.0 -1.0 -1.0 0:-0.12371134 1:0.0 2:-0.06185567 3:-0.010309278 4:0.0 5:0.0 6:0.06185567 7:0.010309279 8:0.134020618 9:0.010309279 10:-0.072164949 11:-0.051546391 12:0.0 13:-0.051546391 14:0.072164948 15:-0.030927835 
-1.0 -1.0 -1.0 0:-0.120879121 1:0.0 2:-0.065934066 3:0.0 4:0.0 5:0.0 6:0.065934066 7:0.010989011 8:0.131868132 9:0.010989011 10:-0.076923077 11:-0.043956044 12:0.0 13:-0.054945055 14:0.065934066 15:-0.043956044 
-1.0 -1.0 -1.0 0:-0.126315789 1:0.010526316 2:-0.063157894 3:0.0 4:0.0 5:0.0 6:0.063157895 7:0.010526316 8:0.136842106 9:0.010526316 10:-0.07368421 11:-0.042105263 12:0.0 13:-0.052631579 14:0.073684211 15:-0.031578947 
-1.0 -1.0 -1.0 0:-0.11 1:0.01 2:-0.06 3:0.0 4:0.0 5:0.0 6:0.07 7:0.01 8:0.13 9:0.01 10:-0.06 11:-0.04 12:0.0 13:-0.05 14:0.07 15:-0.03 
-1.0 -1.0 -1.0 0:-0.131868132 1:0.010989011 2:-0.065934066 3:0.0 4:0.0 5:0.0 6:0.065934066 7:0.010989011 8:0.142857143 9:0.010989011 10:-0.076923077 11:-0.043956044 12:0.0 13:-0.054945055 14:0.076923077 15:-0.032967033 
-1.0 -1.0 -1.0 0:-0.12 1:0.01 2:-0.06 3:0.0 4:0.0 5:0.0 6:0.07 7:0.0 8:0.13 9:0.01 10:-0.07 11:-0.04 12:0.0 13:-0.06 14:0.08 15:-0.04 
-1.0 -1.0 -1.0 0:-0.115987461 1:0.0 2:-0.059561129 3:0.003134796 4:0.0 5:0.0 6:0.062695925 7:0.0 8:0.12539185 9:-0.006269592 10:-0.065830721 11:-0.040752351 12:0.0 13:-0.053291536 14:0.065830721 15:-0.040752351 
