svm_type c_svc
kernel_type rbf
gamma 0.02631578947368421
nr_class 3
total_sv 24
rho 0.0011605024337768555 0.0011839866638183594 -0.0013639330863952637
label 1 2 3
nr_sv 8 8 8
SV
1.0 1.0 0:0.5 1:0.745454545 2:0.0 3:0.0 4:0.0 5:0.109090909 6:0.0 7:0.218181818 8:0.018181818 9:0.327272727 10:0.045454545 11:0.436363636 12:0.090909091 13:0.536363636 14:0.172727273 15:0.618181818 16:0.263636364 17:0.681818182 18:0.381818182 19:0.727272727 20:1.0 21:0.0 22:1.009090909 23:0.109090909 24:1.0 25:0.218181818 26:0.990909091 27:0.327272727 28:0.954545455 29:0.436363636 30:0.909090909 31:0.536363636 32:0.836363636 33:0.618181818 34:0.736363636 35:0.681818182 36:0.627272727 37:0.727272727 
1.0 1.0 0:0.52 1:0.78 2:0.0 3:0.0 4:0.01 5:0.11 6:0.02 7:0.22 8:0.04 9:0.33 10:0.07 11:0.44 12:0.12 13:0.54 14:0.2 15:0.63 16:0.29 17:0.71 18:0.39 19:0.76 20:1.0 21:0.0 22:0.99 23:0.11 24:0.98 25:0.22 26:0.96 27:0.33 28:0.93 29:0.44 30:0.88 31:0.53 32:0.82 33:0.62 34:0.74 35:0.7 36:0.64 37:0.76 
1.0 1.0 0:0.521276596 1:0.765957447 2:0.0 3:0.0 4:0.0 5:0.106382979 6:0.010638298 7:0.223404255 8:0.031914894 9:0.340425532 10:0.063829787 11:0.446808511 12:0.117021277 13:0.553191489 14:0.191489362 15:0.638297872 16:0.287234043 17:0.70212766 18:0.393617021 19:0.755319149 20:1.0 21:-0.010638298 22:1.0 23:0.106382979 24:1.0 25:0.212765957 26:0.978723404 27:0.319148936 28:0.946808511 29:0.436170213 30:0.904255319 31:0.531914894 32:0.829787234 33:0.617021277 34:0.744680851 35:0.691489362 36:0.64893617 37:0.744680851 
1.0 1.0 0:0.520408163 1:0.775510204 2:0.0 3:0.0 4:0.0 5:0.112244898 6:0.010204082 7:0.224489796 8:0.030612245 9:0.336734694 10:0.06122449 11:0.448979592 12:0.112244898 13:0.551020408 14:0.193877551 15:0.632653061 16:0.285714286 17:0.704081633 18:0.397959184 19:0.755102041 20:1.0 21:-0.010204082 22:1.0 23:0.102040816 24:0.989795918 25:0.214285714 26:0.969387755 27:0.326530612 28:0.93877551 29:0.428571429 30:0.897959184 31:0.530612245 32:0.826530612 33:0.612244898 34:0.744897959 35:0.693877551 36:0.642857143 37:0.744897959 
1.0 1.0 0:0.484536082 1:0.742268041 2:0.0 3:0.0 4:0.0 5:0.103092784 6:0.0 7:0.216494845 8:0.020618557 9:0.319587629 10:0.041237113 11:0.432989691 12:0.092783505 13:0.525773196 14:0.164948454 15:0.608247423 16:0.257731959 17:0.680412371 18:0.360824742 19:0.721649485 20:1.0 21:0.010309278 22:1.0 23:0.113402062 24:0.989690722 25:0.226804124 26:0.979381443 27:0.340206186 28:0.948453608 29:0.443298969 30:0.896907216 31:0.546391753 32:0.81443299 33:0.618556701 34:0.721649485 35:0.680412371 36:0.608247423 37:0.721649485 
1.0 1.0 0:0.517241379 1:0.770114943 2:0.0 3:0.0 4:0.0 5:0.114942529 6:0.011494253 7:0.218390805 8:0.034482759 9:0.333333333 10:0.068965517 11:0.436781609 12:0.126436782 13:0.528735632 14:0.206896552 15:0.620689655 16:0.287356322 17:0.689655172 18:0.390804598 19:0.747126437 20:1.0 21:-0.011494253 22:1.0 23:0.103448276 24:0.988505747 25:0.206896552 26:0.977011494 27:0.32183908 28:0.942528736 29:0.425287356 30:0.885057471 31:0.517241379 32:0.816091954 33:0.609195402 34:0.735632184 35:0.689655172 36:0.632183908 37:0.747126437 
1.0 1.0 0:0.515463918 1:0.742268041 2:0.0 3:0.0 4:0.0 5:0.103092784 6:0.010309278 7:0.206185567 8:0.030927835 9:0.319587629 10:0.072164948 11:0.422680412 12:0.134020619 13:0.515463918 14:0.206185567 15:0.597938144 16:0.288659794 17:0.659793814 18:0.391752577 19:0.721649485 20:1.0 21:-0.010309278 22:1.0 23:0.092783505 24:0.989690722 25:0.206185567 26:0.958762887 27:0.309278351 28:0.927835052 29:0.402061856 30:0.87628866 31:0.494845361 32:0.804123711 33:0.577319588 34:0.721649485 35:0.649484536 36:0.628865979 37:0.711340206 
1.0 1.0 0:0.52173913 1:0.77173913 2:0.0 3:0.0 4:0.0 5:0.108695652 6:0.010869565 7:0.217391304 8:0.032608696 9:0.326086957 10:0.076086957 11:0.434782609 12:0.130434783 13:0.532608696 14:0.206521739 15:0.608695652 16:0.293478261 17:0.684782609 18:0.391304348 19:0.75 20:1.0 21:-0.010869565 22:1.0 23:0.097826087 24:0.989130435 25:0.206521739 26:0.967391304 27:0.315217391 28:0.934782609 29:0.423913043 30:0.880434783 31:0.52173913 32:0.815217391 33:0.608695652 34:0.72826087 35:0.684782609 36:0.641304348 37:0.75 
-1.0 1.0 0:0.485436893 1:0.805825243 2:0.0 3:0.0 4:0.0 5:0.116504854 6:0.019417476 7:0.223300971 8:0.038834951 9:0.330097087 10:0.077669903 11:0.446601942 12:0.126213592 13:0.54368932 14:0.194174757 15:0.631067961 16:0.27184466 17:0.708737864 18:0.368932039 19:0.776699029 20:1.0 21:0.009708738 22:1.0 23:0.126213592 24:0.980582524 25:0.233009709 26:0.961165049 27:0.349514563 28:0.922330097 29:0.45631068 30:0.873786408 31:0.553398058 32:0.796116505 33:0.640776699 34:0.718446602 35:0.718446602 36:0.611650485 37:0.786407767 
-1.0 1.0 0:0.477707006 1:0.796178344 2:0.0 3:0.0 4:0.0 5:0.114649682 6:0.012738854 7:0.222929936 8:0.025477707 9:0.337579618 10:0.057324841 11:0.445859873 12:0.108280255 13:0.541401274 14:0.171974522 15:0.630573248 16:0.25477707 17:0.707006369 18:0.356687898 19:0.770700637 20:1.0 21:0.006369427 22:0.993630573 23:0.121019108 24:0.98089172 25:0.229299363 26:0.955414013 27:0.343949045 28:0.923566879 29:0.452229299 30:0.872611465 31:0.554140127 32:0.796178344 33:0.636942675 34:0.713375796 35:0.713375796 36:0.605095541 37:0.770700637 
-1.0 1.0 0:0.519607843 1:0.81372549 2:0.0 3:0.0 4:0.0 5:0.107843137 6:0.019607843 7:0.225490196 8:0.039215686 9:0.343137255 10:0.078431373 11:0.450980392 12:0.12745098 13:0.558823529 14:0.205882353 15:0.647058824 16:0.284313725 17:0.725490196 18:0.392156863 19:0.794117647 20:1.0 21:-0.009803922 22:1.0 23:0.107843137 24:0.980392157 25:0.215686275 26:0.960784314 27:0.333333333 28:0.931372549 29:0.441176471 30:0.882352941 31:0.539215686 32:0.81372549 33:0.637254902 34:0.735294118 35:0.725490196 36:0.647058824 37:0.784313725 
-1.0 1.0 0:0.526315789 1:0.8 2:0.0 3:0.0 4:0.010526316 5:0.115789474 6:0.021052632 7:0.231578947 8:0.042105263 9:0.347368421 10:0.073684211 11:0.452631579 12:0.126315789 13:0.557894737 14:0.2 15:0.642105263 16:0.284210526 17:0.715789474 18:0.4 19:0.778947368 20:1.0 21:0.0 22:1.0 23:0.105263158 24:0.989473684 25:0.221052632 26:0.968421053 27:0.326315789 28:0.936842105 29:0.442105263 30:0.894736842 31:0.536842105 32:0.831578947 33:0.631578947 34:0.747368421 35:0.715789474 36:0.652631579 37:0.768421053 
-1.0 1.0 0:0.494949495 1:0.808080808 2:0.0 3:0.0 4:0.0 5:0.121212121 6:0.01010101 7:0.232323232 8:0.03030303 9:0.343434343 10:0.060606061 11:0.454545455 12:0.111111111 13:0.555555556 14:0.181818182 15:0.646464646 16:0.262626263 17:0.727272727 18:0.363636364 19:0.787878788 20:1.0 21:0.01010101 22:1.0 23:0.121212121 24:0.98989899 25:0.242424242 26:0.96969697 27:0.353535354 28:0.929292929 29:0.464646465 30:0.878787879 31:0.565656566 32:0.808080808 33:0.646464646 34:0.727272727 35:0.727272727 36:0.626262626 37:0.787878788 
-1.0 1.0 0:0.534883721 1:0.790697674 2:0.0 3:0.0 4:0.0 5:0.11627907 6:0.011627907 7:0.23255814 8:0.023255814 9:0.348837209 10:0.058139535 11:0.465116279 12:0.11627907 13:0.569767442 14:0.197674419 15:0.651162791 16:0.290697674 17:0.720930233 18:0.406976744 19:0.779069767 20:1.0 21:-0.011627907 22:1.0 23:0.104651163 24:0.988372093 25:0.209302326 26:0.976744186 27:0.325581395 28:0.953488372 29:0.441860465 30:0.906976744 31:0.534883721 32:0.837209302 33:0.627906977 34:0.755813953 35:0.709302326 36:0.651162791 37:0.76744186 
-1.0 1.0 0:0.537735849 1:0.801886792 2:0.0 3:0.0 4:0.0 5:0.113207547 6:0.009433962 7:0.226415094 8:0.028301887 9:0.349056604 10:0.056603774 11:0.471698113 12:0.103773585 13:0.575471698 14:0.188679245 15:0.660377358 16:0.283018868 17:0.735849057 18:0.396226415 19:0.783018868 20:1.0 21:-0.009433962 22:1.0 23:0.103773585 24:0.990566038 25:0.216981132 26:0.981132075 27:0.330188679 28:0.952830189 29:0.443396226 30:0.91509434 31:0.547169811 32:0.849056604 33:0.641509434 34:0.764150943 35:0.716981132 36:0.660377358 37:0.773584906 
-1.0 1.0 0:0.485436893 1:0.766990291 2:0.0 3:0.0 4:0.0 5:0.106796117 6:0.0 7:0.223300971 8:0.009708738 9:0.330097087 10:0.038834951 11:0.446601942 12:0.087378641 13:0.54368932 14:0.155339806 15:0.631067961 16:0.252427184 17:0.699029126 18:0.359223301 19:0.747572816 20:1.0 21:0.009708738 22:1.0 23:0.126213592 24:0.990291262 25:0.233009709 26:0.970873786 27:0.349514563 28:0.951456311 29:0.45631068 30:0.893203883 31:0.563106796 32:0.825242718 33:0.640776699 34:0.72815534 35:0.708737864 36:0.611650485 37:0.757281553 
-1.0 -1.0 0:0.505263158 1:0.842105263 2:0.0 3:0.0 4:0.0 5:0.115789474 6:0.010526316 7:0.231578947 8:0.021052632 9:0.347368421 10:0.052631579 11:0.463157895 12:0.105263158 13:0.568421053 14:0.178947368 15:0.663157895 16:0.263157895 17:0.747368421 18:0.378947368 19:0.810526316 20:1.0 21:0.010526316 22:1.0 23:0.126315789 24:0.989473684 25:0.242105263 26:0.968421053 27:0.357894737 28:0.936842105 29:0.463157895 30:0.884210526 31:0.568421053 32:0.821052632 33:0.663157895 34:0.736842105 35:0.747368421 36:0.631578947 37:0.810526316 
-1.0 -1.0 0:0.494949495 1:0.797979798 2:0.0 3:0.0 4:-0.01010101 5:0.121212121 6:0.0 7:0.232323232 8:0.01010101 9:0.353535354 10:0.03030303 11:0.464646465 12:0.080808081 13:0.575757576 14:0.151515152 15:0.666666667 16:0.252525253 17:0.737373737 18:0.363636364 19:0.787878788 20:1.0 21:0.01010101 22:1.0 23:0.121212121 24:1.0 25:0.242424242 26:0.97979798 27:0.353535354 28:0.95959596 29:0.474747475 30:0.909090909 31:0.575757576 32:0.838383838 33:0.666666667 34:0.737373737 35:0.737373737 36:0.626262626 37:0.787878788 
-1.0 -1.0 0:0.538461538 1:0.846153846 2:0.0 3:0.0 4:0.0 5:0.125 6:0.0 7:0.25 8:0.009615385 9:0.375 10:0.038461538 11:0.5 12:0.086538462 13:0.615384615 14:0.173076923 15:0.711538462 16:0.278846154 17:0.778846154 18:0.403846154 19:0.826923077 20:1.0 21:0.0 22:1.009615385 23:0.115384615 24:1.009615385 25:0.230769231 26:1.0 27:0.346153846 28:0.980769231 29:0.471153846 30:0.932692308 31:0.576923077 32:0.875 33:0.673076923 34:0.788461538 35:0.759615385 36:0.673076923 37:0.817307692 
-1.0 -1.0 0:0.522727273 1:0.852272727 2:0.0 3:0.0 4:0.0 5:0.125 6:0.011363636 7:0.25 8:0.022727273 9:0.363636364 10:0.056818182 11:0.488636364 12:0.102272727 13:0.602272727 14:0.181818182 15:0.693181818 16:0.272727273 17:0.772727273 18:0.386363636 19:0.829545455 20:1.0 21:0.0 22:1.0 23:0.125 24:1.0 25:0.238636364 26:0.977272727 27:0.352272727 28:0.954545455 29:0.477272727 30:0.909090909 31:0.579545455 32:0.852272727 33:0.681818182 34:0.761363636 35:0.761363636 36:0.659090909 37:0.829545455 
-1.0 -1.0 0:0.494623656 1:0.827956989 2:0.0 3:0.0 4:-0.010752688 5:0.11827957 6:-0.010752688 7:0.23655914 8:0.010752688 9:0.35483871 10:0.032258065 11:0.47311828 12:0.086021505 13:0.580645161 14:0.150537634 15:0.677419355 16:0.247311828 17:0.752688172 18:0.35483871 19:0.806451613 20:1.0 21:0.010752688 22:1.0 23:0.129032258 24:1.0 25:0.247311828 26:0.978494624 27:0.365591398 28:0.946236559 29:0.483870968 30:0.903225806 31:0.591397849 32:0.827956989 33:0.677419355 34:0.731182796 35:0.752688172 36:0.623655914 37:0.806451613 
-1.0 -1.0 0:0.525252525 1:0.818181818 2:0.0 3:0.0 4:0.0 5:0.121212121 6:0.01010101 7:0.242424242 8:0.03030303 9:0.353535354 10:0.060606061 11:0.474747475 12:0.111111111 13:0.575757576 14:0.191919192 15:0.666666667 16:0.282828283 17:0.747474747 18:0.393939394 19:0.797979798 20:1.0 21:0.01010101 22:1.0 23:0.121212121 24:0.98989899 25:0.232323232 26:0.96969697 27:0.343434343 28:0.939393939 29:0.454545455 30:0.888888889 31:0.555555556 32:0.828282828 33:0.646464646 34:0.747474747 35:0.727272727 36:0.646464646 37:0.787878788 
-1.0 -1.0 0:0.5 1:0.826530612 2:0.0 3:0.0 4:0.0 5:0.112244898 6:0.010204082 7:0.234693878 8:0.020408163 9:0.346938776 10:0.051020408 11:0.469387755 12:0.102040816 13:0.571428571 14:0.173469388 15:0.663265306 16:0.255102041 17:0.744897959 18:0.367346939 19:0.806122449 20:1.0 21:-0.010204082 22:1.0 23:0.112244898 24:0.989795918 25:0.224489796 26:0.969387755 27:0.346938776 28:0.93877551 29:0.459183673 30:0.897959184 31:0.571428571 32:0.826530612 33:0.663265306 34:0.734693878 35:0.744897959 36:0.632653061 37:0.806122449 
-1.0 -1.0 0:0.514285714 1:0.80952381 2:0.0 3:0.0 4:0.0 5:0.123809524 6:0.0 7:0.238095238 8:0.019047619 9:0.352380952 10:0.047619048 11:0.476190476 12:0.095238095 13:0.580952381 14:0.171428571 15:0.666666667 16:0.266666667 17:0.742857143 18:0.380952381 19:0.79047619 20:1.0 21:0.0 22:1.0 23:0.114285714 24:1.0 25:0.228571429 26:0.980952381 27:0.342857143 28:0.952380952 29:0.457142857 30:0.904761905 31:0.561904762 32:0.838095238 33:0.657142857 34:0.752380952 35:0.733333333 36:0.638095238 37:0.79047619 
